<?xml version="1.0"?>
<opencv_storage>
<stage12>
  <maxWeakCount>10</maxWeakCount>
  <stageThreshold>-1.6874067783355713e+000</stageThreshold>
  <weakClassifiers>
    <_>
      <internalNodes>
        0 -1 77423 -2097165 -3236481 -803799081 -564863755 -2425392
        -54884822 -276578507 -297489103</internalNodes>
      <leafValues>
        -7.2533661127090454e-001 -1.1205673962831497e-001</leafValues></_>
    <_>
      <internalNodes>
        0 -1 25841 -768699702 -674582290 917639380 -744507937
        -1829983066 -720574385 -1398621281 1604311967</internalNodes>
      <leafValues>
        -6.7713367938995361e-001 1.2139768153429031e-001</leafValues></_>
    <_>
      <internalNodes>
        0 -1 121351 -1164259589 -16800804 -1608986637 -1428520760
        -1149784579 -17259748 -1461220632 -2147462080</internalNodes>
      <leafValues>
        -4.9063089489936829e-001 2.7425977587699890e-001</leafValues></_>
    <_>
      <internalNodes>
        0 -1 85417 -402181 -824772716 -1373528498 -19082036 -14226476
        1451944250 -75171332 -1001109388</internalNodes>
      <leafValues>
        -4.5543849468231201e-001 3.3467176556587219e-001</leafValues></_>
    <_>
      <internalNodes>
        0 -1 77774 -677709584 1288608748 618633342 -656412449 -203770961
        -814022606 -72426585 -1644828449</internalNodes>
      <leafValues>
        -6.2846159934997559e-001 2.0309032499790192e-001</leafValues></_>
    <_>
      <internalNodes>
        0 -1 85856 -6586883 -538443823 -593176189 -1078083771 2006104748
        -167083537 1814577997 88354068</internalNodes>
      <leafValues>
        -4.1304907202720642e-001 3.2636326551437378e-001</leafValues></_>
    <_>
      <internalNodes>
        0 -1 44711 36373742 -1796378125 -1851550445 1503727915 437977583
        -665308509 865564345 -1760620325</internalNodes>
      <leafValues>
        -5.7969719171524048e-001 2.4290107190608978e-001</leafValues></_>
    <_>
      <internalNodes>
        0 -1 105312 -322962179 -372839996 -997601322 -1907047715
        -1817445188 -1144282710 -610740096 -2108492494</internalNodes>
      <leafValues>
        -4.1289421916007996e-001 3.7342607975006104e-001</leafValues></_>
    <_>
      <internalNodes>
        0 -1 3018 89105102 1404781508 -797738561 -1118981027 51409738
        1530933390 -480261446 1965777032</internalNodes>
      <leafValues>
        -6.5582126379013062e-001 2.0895285904407501e-001</leafValues></_>
    <_>
      <internalNodes>
        0 -1 129645 -43720723 -336526627 -885007433 -138376712
        2125331439 -1180725064 -169051154 -2013209862</internalNodes>
      <leafValues>
        -3.8439881801605225e-001 3.8028162717819214e-001</leafValues></_></weakClassifiers></stage12>
</opencv_storage>
