<?xml version="1.0"?>
<opencv_storage>
<stage0>
  <maxWeakCount>4</maxWeakCount>
  <stageThreshold>-2.2058465480804443e+000</stageThreshold>
  <weakClassifiers>
    <_>
      <internalNodes>
        0 -1 36390 -4468246 -13640952 -716573190 -2081 -39921458
        -4469270 -2097409 -1025</internalNodes>
      <leafValues>
        -9.4667285680770874e-001 4.6793851256370544e-001</leafValues></_>
    <_>
      <internalNodes>
        0 -1 77899 -4663064 -1051672 -667157774 -134226947 -76873777
        -3157057 -1074070529 -1</internalNodes>
      <leafValues>
        -9.0105307102203369e-001 3.6885091662406921e-001</leafValues></_>
    <_>
      <internalNodes>
        0 -1 46033 -7611158 -13641976 919826655 -1081387049 -1414537266
        -279979889 -2019074433 -1081090097</internalNodes>
      <leafValues>
        -7.2656887769699097e-001 4.1773146390914917e-001</leafValues></_>
    <_>
      <internalNodes>
        0 -1 69633 -2098193 -286534169 -434145578 -1593993569 -1441977
        -881873237 -675547149 -193005065</internalNodes>
      <leafValues>
        -7.9675924777984619e-001 3.6844822764396667e-001</leafValues></_></weakClassifiers></stage0>
</opencv_storage>
