<?xml version="1.0"?>
<opencv_storage>
<stage14>
  <maxWeakCount>10</maxWeakCount>
  <stageThreshold>-1.4600491523742676e+000</stageThreshold>
  <weakClassifiers>
    <_>
      <internalNodes>
        0 -1 4191 -605093929 -142609281 -37577761 -808271650 -271908977
        -5518405 -880025602 -541854985</internalNodes>
      <leafValues>
        -6.6223675012588501e-001 2.9793735593557358e-002</leafValues></_>
    <_>
      <internalNodes>
        0 -1 111290 -222298117 -875720499 -1937094223 -1061125032
        -84689924 -40202622 -388237632 -2132608430</internalNodes>
      <leafValues>
        -5.0934344530105591e-001 2.0253910124301910e-001</leafValues></_>
    <_>
      <internalNodes>
        0 -1 89166 -2631169 -77933113 1578619887 2086597525 -611685010
        -706576221 -1465885855 1157686344</internalNodes>
      <leafValues>
        -4.7354859113693237e-001 2.4447742104530334e-001</leafValues></_>
    <_>
      <internalNodes>
        0 -1 14955 58906798 -708881022 1907429663 -640073325 2031032392
        328544617 736097019 -269313</internalNodes>
      <leafValues>
        -6.5355741977691650e-001 2.0457382500171661e-001</leafValues></_>
    <_>
      <internalNodes>
        0 -1 102696 -6332425 -271647769 -179186853 1179047888 -140510911
        -41643895 -62643100 1073795412</internalNodes>
      <leafValues>
        -6.0701906681060791e-001 2.2767265141010284e-001</leafValues></_>
    <_>
      <internalNodes>
        0 -1 30187 -499829380 -195790682 -225726380 1631140637 577349557
        -2134854280 -1421202497 2140352447</internalNodes>
      <leafValues>
        -5.1767486333847046e-001 2.4230042099952698e-001</leafValues></_>
    <_>
      <internalNodes>
        0 -1 55946 -134422531 -341674 -1274840161 -539692288 -83446978
        -70867206 -1106362473 -2071795996</internalNodes>
      <leafValues>
        -3.6647891998291016e-001 3.7491858005523682e-001</leafValues></_>
    <_>
      <internalNodes>
        0 -1 121703 -1343431429 -1758035979 1872756725 203849524 -66915
        -622926 -587333650 -2143095186</internalNodes>
      <leafValues>
        -3.1781819462776184e-001 4.1504079103469849e-001</leafValues></_>
    <_>
      <internalNodes>
        0 -1 109398 -1395776641 -481070689 1346422224 1854431306
        -19924164 1862903961 -132696 536871504</internalNodes>
      <leafValues>
        -6.2172019481658936e-001 2.0927910506725311e-001</leafValues></_>
    <_>
      <internalNodes>
        0 -1 133811 2127557653 628519231 1394837835 -1931479276
        1755795780 -383196520 1091401904 7729079</internalNodes>
      <leafValues>
        -4.4725778698921204e-001 2.8266662359237671e-001</leafValues></_></weakClassifiers></stage14>
</opencv_storage>
