<?xml version="1.0"?>
<opencv_storage>
<stage18>
  <maxWeakCount>11</maxWeakCount>
  <stageThreshold>-1.5423346757888794e+000</stageThreshold>
  <weakClassifiers>
    <_>
      <internalNodes>
        0 -1 4433 -67117569 -221112489 1281022653 -154091518 1523054319
        -206562685 -104621586 -1246505065</internalNodes>
      <leafValues>
        -6.8369257450103760e-001 -1.4596273005008698e-001</leafValues></_>
    <_>
      <internalNodes>
        0 -1 4529 -783040114 -539687929 144445473 -673250977 -2113292001
        310411291 16921339 1955826193</internalNodes>
      <leafValues>
        -4.8398849368095398e-001 1.5766163170337677e-001</leafValues></_>
    <_>
      <internalNodes>
        0 -1 102220 1360648408 1373422060 25822204 -577832215 414104350
        -1031176053 539445938 1936169195</internalNodes>
      <leafValues>
        -5.0873249769210815e-001 1.9486884772777557e-001</leafValues></_>
    <_>
      <internalNodes>
        0 -1 102537 -550217737 -1009749108 -242640067 -584814128
        -136970831 -1195147128 -8078596 201328644</internalNodes>
      <leafValues>
        -4.6252265572547913e-001 2.5736597180366516e-001</leafValues></_>
    <_>
      <internalNodes>
        0 -1 59524 1455152234 -966656925 1912910389 814973060 554800123
        1210106432 -1221000743 -1750863622</internalNodes>
      <leafValues>
        -4.8175722360610962e-001 2.2125709056854248e-001</leafValues></_>
    <_>
      <internalNodes>
        0 -1 129676 2145165293 1324151643 134600243 323343307 2042421725
        -1208315880 801554174 84946968</internalNodes>
      <leafValues>
        -4.9696052074432373e-001 2.2499814629554749e-001</leafValues></_>
    <_>
      <internalNodes>
        0 -1 3579 -892671225 668067317 -438018105 -911056773 1259469424
        -1634690250 -49637100 1601696759</internalNodes>
      <leafValues>
        -3.6710324883460999e-001 2.9134470224380493e-001</leafValues></_>
    <_>
      <internalNodes>
        0 -1 88902 -1598311422 -512921534 -1328343082 -1929451440
        -1206992063 -687177598 -1469220304 -1938589321</internalNodes>
      <leafValues>
        -7.8671139478683472e-001 1.3594305515289307e-001</leafValues></_>
    <_>
      <internalNodes>
        0 -1 99475 -96805423 1398162142 -641691218 -732048548 -800928975
        -645750774 1261155316 54462633</internalNodes>
      <leafValues>
        -3.9038220047950745e-001 2.6994124054908752e-001</leafValues></_>
    <_>
      <internalNodes>
        0 -1 17723 262211525 366350593 -2086464741 -1485856005
        1363874289 1943420936 -900554363 46416132</internalNodes>
      <leafValues>
        -5.5132049322128296e-001 2.0236688852310181e-001</leafValues></_>
    <_>
      <internalNodes>
        0 -1 62045 -468813036 1145406076 1435721116 -1154199024
        -1868144211 865961722 84022364 447761328</internalNodes>
      <leafValues>
        -5.3122204542160034e-001 1.8560984730720520e-001</leafValues></_></weakClassifiers></stage18>
</opencv_storage>
