<?xml version="1.0"?>
<opencv_storage>
<stage8>
  <maxWeakCount>8</maxWeakCount>
  <stageThreshold>-2.1531605720520020e+000</stageThreshold>
  <weakClassifiers>
    <_>
      <internalNodes>
        0 -1 51206 -241967641 -779791897 332607871 -1107300225
        -2135272497 -254648122 -1325829509 -338963713</internalNodes>
      <leafValues>
        -7.7571058273315430e-001 -8.4978543221950531e-002</leafValues></_>
    <_>
      <internalNodes>
        0 -1 73637 -7119623 -269519158 -1231979266 -766020395 -126157942
        -69082031 -1075413007 -1929941797</internalNodes>
      <leafValues>
        -5.9185951948165894e-001 2.3883706331253052e-001</leafValues></_>
    <_>
      <internalNodes>
        0 -1 129596 -1087046147 -10620515 -786171009 -141199375
        -1660440129 -774833639 1567684574 21259196</internalNodes>
      <leafValues>
        -5.7437324523925781e-001 3.0887165665626526e-001</leafValues></_>
    <_>
      <internalNodes>
        0 -1 99653 -1078436616 -1913653304 -1852418078 -1527229996
        -73154739 -664583506 -71569967 41028252</internalNodes>
      <leafValues>
        -7.6014584302902222e-001 2.4359503388404846e-001</leafValues></_>
    <_>
      <internalNodes>
        0 -1 30816 -449337049 -236923923 -2137976449 -2084193965
        -1946995382 -7614109 1254846847 -1882195445</internalNodes>
      <leafValues>
        -5.5005860328674316e-001 2.8812405467033386e-001</leafValues></_>
    <_>
      <internalNodes>
        0 -1 111270 -38150147 -7671672 -788018695 -712442155 -103942019
        -371548032 -72746251 -2139045716</internalNodes>
      <leafValues>
        -4.5071202516555786e-001 4.0329343080520630e-001</leafValues></_>
    <_>
      <internalNodes>
        0 -1 85898 -647310614 -785936187 1880355058 -1147962435
        -892535858 -1962372823 -1568476169 1116787957</internalNodes>
      <leafValues>
        -7.0776212215423584e-001 2.4094270169734955e-001</leafValues></_>
    <_>
      <internalNodes>
        0 -1 26582 -421464417 -671357091 633779610 -704469892 -284492276
        -1663380581 -1414870124 -502250252</internalNodes>
      <leafValues>
        -5.3590422868728638e-001 3.0501565337181091e-001</leafValues></_></weakClassifiers></stage8>
</opencv_storage>
