<?xml version="1.0"?>
<opencv_storage>
<stage13>
  <maxWeakCount>9</maxWeakCount>
  <stageThreshold>-1.9018579721450806e+000</stageThreshold>
  <weakClassifiers>
    <_>
      <internalNodes>
        0 -1 129669 -679608323 -44460963 -543875683 -572535857
        -185866785 -104873029 -925434744 -119543046</internalNodes>
      <leafValues>
        -6.4856356382369995e-001 8.5867621004581451e-002</leafValues></_>
    <_>
      <internalNodes>
        0 -1 111227 -1346637832 1037034948 -1802512943 -1902932011
        -1362377736 -119879526 -1966378032 -1567366575</internalNodes>
      <leafValues>
        -5.8650439977645874e-001 1.6911499202251434e-001</leafValues></_>
    <_>
      <internalNodes>
        0 -1 99553 -155197697 -347410080 743365375 -2147026396
        -1174212601 -373521981 1433238385 1140913156</internalNodes>
      <leafValues>
        -6.8965590000152588e-001 1.8924401700496674e-001</leafValues></_>
    <_>
      <internalNodes>
        0 -1 97041 -1192760775 -69795471 -746400930 966144606
        -1143219208 -107181940 -609175108 -1072427972</internalNodes>
      <leafValues>
        -4.0225565433502197e-001 3.2722964882850647e-001</leafValues></_>
    <_>
      <internalNodes>
        0 -1 92618 -1078436364 -290565190 -1300050624 -488713634
        -204580315 -108937215 -4162627 -1610655233</internalNodes>
      <leafValues>
        -6.4964956045150757e-001 1.9903923571109772e-001</leafValues></_>
    <_>
      <internalNodes>
        0 -1 69688 -74249 -9115249 -71049953 -1266791 -69291170
        1545259512 -290540836 -1610322508</internalNodes>
      <leafValues>
        -3.7777155637741089e-001 3.4090250730514526e-001</leafValues></_>
    <_>
      <internalNodes>
        0 -1 81518 -1869893534 -1865646001 73138418 -1916931241
        -1069520316 2017757195 -523483017 -406456969</internalNodes>
      <leafValues>
        -7.7571779489517212e-001 1.7874033749103546e-001</leafValues></_>
    <_>
      <internalNodes>
        0 -1 119252 -1088909059 -652799331 1413878271 -2076012068
        -376769666 695772092 -1685677096 -2147477224</internalNodes>
      <leafValues>
        -5.4864293336868286e-001 2.6197445392608643e-001</leafValues></_>
    <_>
      <internalNodes>
        0 -1 49414 -1360439289 940757383 -251300065 -33926385 1201414309
        411451564 -264166372 1208941872</internalNodes>
      <leafValues>
        -5.3277724981307983e-001 2.3932525515556335e-001</leafValues></_></weakClassifiers></stage13>
</opencv_storage>
