<?xml version="1.0"?>
<opencv_storage>
<stage2>
  <maxWeakCount>4</maxWeakCount>
  <stageThreshold>-2.0984051227569580e+000</stageThreshold>
  <weakClassifiers>
    <_>
      <internalNodes>
        0 -1 26274 -5049110 -3152084 1377816794 -136324643 -120913970
        -70278260 -1399923713 -2102785</internalNodes>
      <leafValues>
        -9.3621224164962769e-001 4.4034626334905624e-002</leafValues></_>
    <_>
      <internalNodes>
        0 -1 55063 -1087695414 -1087638193 -1859036673 -1112279683
        -1090003764 -271867703 -1182067713 -1081385525</internalNodes>
      <leafValues>
        -8.1234675645828247e-001 2.6043751835823059e-001</leafValues></_>
    <_>
      <internalNodes>
        0 -1 92904 -4662040 -1074793528 -107088398 -35 -78708914
        -68425425 -612961545 -411765135</internalNodes>
      <leafValues>
        -8.3831000328063965e-001 2.6529422402381897e-001</leafValues></_>
    <_>
      <internalNodes>
        0 -1 89187 -4203521 -275983386 -36374804 -21701252 -18351359
        -11808197 -383078443 -1943009168</internalNodes>
      <leafValues>
        -5.8432036638259888e-001 4.8217824101448059e-001</leafValues></_></weakClassifiers></stage2>
</opencv_storage>
