<?xml version="1.0"?>
<opencv_storage>
<stage4>
  <maxWeakCount>6</maxWeakCount>
  <stageThreshold>-1.9620065689086914e+000</stageThreshold>
  <weakClassifiers>
    <_>
      <internalNodes>
        0 -1 106226 -1 -8923195 -246549537 -134220801 -69337410
        -1969561909 -36897793 -102959108</internalNodes>
      <leafValues>
        -7.8714287281036377e-001 5.2999999374151230e-002</leafValues></_>
    <_>
      <internalNodes>
        0 -1 24161 1066082255 -1076241 -1654917633 -7638817 -1374732337
        -3434033 -1148305459 -1358422711</internalNodes>
      <leafValues>
        -6.9028443098068237e-001 2.9931512475013733e-001</leafValues></_>
    <_>
      <internalNodes>
        0 -1 85953 -1078724616 -269484052 -132123920 -17039364
        -103036001 -285279233 -83964427 -591857192</internalNodes>
      <leafValues>
        -7.4454486370086670e-001 3.0650293827056885e-001</leafValues></_>
    <_>
      <internalNodes>
        0 -1 95910 -39976961 -293146298 -1021248802 -588983588 -2294196
        -360525105 -640091140 -937365256</internalNodes>
      <leafValues>
        -5.4394364356994629e-001 4.7555515170097351e-001</leafValues></_>
    <_>
      <internalNodes>
        0 -1 123608 -4526595 -556802659 -796165665 -221633315
        -1176527879 -1410418276 -286856456 -2065666288</internalNodes>
      <leafValues>
        -5.6431066989898682e-001 4.1288617253303528e-001</leafValues></_>
    <_>
      <internalNodes>
        0 -1 7350 -27970822 -75521896 -788065217 -33582691 -778073166
        900234632 1239363371 -1073795430</internalNodes>
      <leafValues>
        -6.2359899282455444e-001 3.7862038612365723e-001</leafValues></_></weakClassifiers></stage4>
</opencv_storage>
