<?xml version="1.0"?>
<opencv_storage>
<stage3>
  <maxWeakCount>5</maxWeakCount>
  <stageThreshold>-1.6289048194885254e+000</stageThreshold>
  <weakClassifiers>
    <_>
      <internalNodes>
        0 -1 14130 -2097414 -2634262 1599993343 -14952805 -303060742
        -69243766 -540280581 -538989941</internalNodes>
      <leafValues>
        -8.5611510276794434e-001 1.1572153121232986e-001</leafValues></_>
    <_>
      <internalNodes>
        0 -1 113923 -4464645 -2105352 -1717577773 -1225597199
        -1465132072 -1181479 -1727792912 -2100232720</internalNodes>
      <leafValues>
        -6.5800631046295166e-001 3.7039530277252197e-001</leafValues></_>
    <_>
      <internalNodes>
        0 -1 88894 -46605064 -74526332 -90245390 -17051435 -1347888820
        -73688914 -7408641 -1413751809</internalNodes>
      <leafValues>
        -7.8845459222793579e-001 3.0234369635581970e-001</leafValues></_>
    <_>
      <internalNodes>
        0 -1 99384 -37756929 -358161428 -31689252 -57619572 -81142487
        -6621005 -63649072 -1942958928</internalNodes>
      <leafValues>
        -5.7635819911956787e-001 3.9376378059387207e-001</leafValues></_>
    <_>
      <internalNodes>
        0 -1 69715 -6628120 -272247863 -667460386 -1264668033 -14876722
        -543502208 2009233887 -2072153729</internalNodes>
      <leafValues>
        -7.4849426746368408e-001 3.3092319965362549e-001</leafValues></_></weakClassifiers></stage3>
</opencv_storage>
