<?xml version="1.0"?>
<opencv_storage>
<stage17>
  <maxWeakCount>10</maxWeakCount>
  <stageThreshold>-1.7083065509796143e+000</stageThreshold>
  <weakClassifiers>
    <_>
      <internalNodes>
        0 -1 3884 -539230245 -71639045 2074772991 -170769950 -1299983873
        -138694509 -20456549 -535561</internalNodes>
      <leafValues>
        -6.2574219703674316e-001 6.8437181413173676e-002</leafValues></_>
    <_>
      <internalNodes>
        0 -1 105224 -90178307 -2142335802 -1937142540 -1936481380
        -324341940 -1412429617 -1366757408 -2110531303</internalNodes>
      <leafValues>
        -4.5522195100784302e-001 1.9491840898990631e-001</leafValues></_>
    <_>
      <internalNodes>
        0 -1 26521 -783406386 -653352314 806967765 861625173 -1919512411
        1881964619 -1148792225 300274815</internalNodes>
      <leafValues>
        -3.9485815167427063e-001 2.6886263489723206e-001</leafValues></_>
    <_>
      <internalNodes>
        0 -1 85607 -1078304772 -272706604 1241739386 -558067428
        -70602024 -633339615 -936332664 26643896</internalNodes>
      <leafValues>
        -7.0872372388839722e-001 1.5109869837760925e-001</leafValues></_>
    <_>
      <internalNodes>
        0 -1 116673 -74711045 -269888054 -41367725 -1067268612
        -1372669201 -260512757 1609546624 1078254556</internalNodes>
      <leafValues>
        -4.4952788949012756e-001 2.6249572634696960e-001</leafValues></_>
    <_>
      <internalNodes>
        0 -1 63131 -651955520 -187862137 92640101 1795506695 1408892849
        -1735620347 194229550 1439771129</internalNodes>
      <leafValues>
        -5.0292384624481201e-001 2.4174971878528595e-001</leafValues></_>
    <_>
      <internalNodes>
        0 -1 64719 -86189465 -54069046 -1845381562 -1596551019 -70583417
        -130834391 -1698136201 -1536265987</internalNodes>
      <leafValues>
        -4.3093380331993103e-001 2.5004339218139648e-001</leafValues></_>
    <_>
      <internalNodes>
        0 -1 123665 -1701156609 -539339844 1150866135 -1555037812
        -81609731 -1064654376 -1443960184 -2080085728</internalNodes>
      <leafValues>
        -4.5413613319396973e-001 2.4891860783100128e-001</leafValues></_>
    <_>
      <internalNodes>
        0 -1 77694 1913148640 -1861934612 -2125872398 234726303
        -1591266996 -765460339 1907847475 -1141151361</internalNodes>
      <leafValues>
        -8.4820842742919922e-001 1.3470052182674408e-001</leafValues></_>
    <_>
      <internalNodes>
        0 -1 78236 -174361091 1570017695 -250489093 1571613085
        -778310961 -1329067509 852651979 1361400757</internalNodes>
      <leafValues>
        -3.8687062263488770e-001 2.9023605585098267e-001</leafValues></_></weakClassifiers></stage17>
</opencv_storage>
