<?xml version="1.0"?>
<opencv_storage>
<stage10>
  <maxWeakCount>8</maxWeakCount>
  <stageThreshold>-1.8084769248962402e+000</stageThreshold>
  <weakClassifiers>
    <_>
      <internalNodes>
        0 -1 55618 -151298493 -255601361 -65938057 -523239941
        -1282670905 -1276935537 -130023629 -1073218985</internalNodes>
      <leafValues>
        -8.1723916530609131e-001 -2.1772639453411102e-001</leafValues></_>
    <_>
      <internalNodes>
        0 -1 123478 -1078263812 -2641483 -1715300387 -168154147
        -1160511491 -18548463 -927224356 -1399297728</internalNodes>
      <leafValues>
        -6.2088996171951294e-001 1.9894170761108398e-001</leafValues></_>
    <_>
      <internalNodes>
        0 -1 92290 -576467768 -79054340 -542125070 1944013757 -504708274
        -1307909551 -474528937 -680275621</internalNodes>
      <leafValues>
        -6.2529963254928589e-001 2.2243385016918182e-001</leafValues></_>
    <_>
      <internalNodes>
        0 -1 51774 -1078788268 -204409121 -183329572 -59712264 -69544093
        -1663529485 -3343971 51380</internalNodes>
      <leafValues>
        -6.5700113773345947e-001 2.5695085525512695e-001</leafValues></_>
    <_>
      <internalNodes>
        0 -1 129321 -718152229 -271198476 -603967121 682005948
        -814941510 -656571987 306743807 139783404</internalNodes>
      <leafValues>
        -5.1991713047027588e-001 2.8067183494567871e-001</leafValues></_>
    <_>
      <internalNodes>
        0 -1 15381 -1793191826 430428399 -1878952977 362148787
        -130461621 965444015 1931313135 -1677987589</internalNodes>
      <leafValues>
        -6.1617434024810791e-001 2.3880015313625336e-001</leafValues></_>
    <_>
      <internalNodes>
        0 -1 77861 -543433219 -7466 -568868642 -85788604 -70846785
        -8355196 -187106922 -1945871276</internalNodes>
      <leafValues>
        -4.6218585968017578e-001 3.8641387224197388e-001</leafValues></_>
    <_>
      <internalNodes>
        0 -1 75655 531314754 923771255 -535815969 1771803391 -1866581797
        -267927477 1761345699 119167602</internalNodes>
      <leafValues>
        -6.4059019088745117e-001 2.2824820876121521e-001</leafValues></_></weakClassifiers></stage10>
</opencv_storage>
